34 128
34 -0.09075371 -0.16366935 0.037325945 -0.011038988 -0.042294864 0.016028639 0.19159004 -0.012441533 -0.20532718 0.052914724 0.075343676 -0.12921304 -0.012315752 -0.29518944 0.12195763 0.07490456 -0.08134509 -0.02273487 -0.1282058 -0.03988733 0.2322514 -0.14928317 0.11673187 0.06578333 0.037660386 -0.110538445 0.03306802 0.0753259 -0.12710737 0.16471453 0.023683444 0.027081953 -0.21106285 0.072901145 0.065099694 -0.11915216 -0.12062634 0.02277528 0.075224765 -0.09595983 -0.024524542 0.0038451133 -0.02613927 -0.097125515 -0.06295159 0.15685101 -0.2759405 0.09839102 0.07901005 -0.044890415 0.053296473 0.027582802 0.07642271 0.044894334 0.17338906 0.011390989 -0.017838268 -0.104060054 0.006722718 0.09703368 -0.048004966 0.10701961 0.042959247 0.04741709 0.0071257106 -0.052905474 0.015586321 0.1480534 0.039458334 -0.21834366 -0.09368084 -0.2097653 0.06069714 0.18751776 0.07021725 0.13594154 0.037205454 0.013102226 0.060314775 0.14117336 -0.12716246 0.09788122 0.03240939 0.10272761 -0.16280837 0.037733655 -0.031729545 0.106199086 0.14990664 -0.03523888 0.16392602 0.21135792 -0.12110745 -0.22487482 0.18214373 -0.05452123 -0.0378126 -0.1570964 0.04715025 0.1721063 -0.036081076 0.19481078 -0.053285096 0.16334796 0.21058728 -0.15609282 0.012730071 -0.047931693 0.15712008 0.05103572 0.07075119 -0.07362683 -0.018899363 0.13343921 0.14872299 -0.07428743 -0.027263561 0.04900132 0.10388841 -0.06592498 0.0015137295 -0.0040695257 0.029964354 0.043970745 0.2006898 0.035554882 -0.005521096 0.14314762
1 -0.09856569 -0.12952581 0.0045640804 0.08638247 -0.12195209 -0.11447073 0.19296959 0.03108995 -0.1741751 0.15576048 -0.041340474 -0.0547156 0.027515316 -0.29205307 0.10501159 0.09806172 -0.20618413 0.026654886 -0.14681652 -0.038812134 0.19982985 -0.18946953 0.13545299 0.14140715 0.009421691 -0.08476329 -0.09413422 0.096654564 -0.1667493 0.09526231 -0.061965443 -0.03943177 -0.19644444 0.09529984 -0.00033738764 -0.04292522 -0.029120928 0.0002705982 0.161348 -0.03395407 -0.063649155 -0.04279674 0.0014502819 -0.1482037 0.07883803 0.17311968 -0.22570908 0.18975268 0.07190546 -0.04734087 0.016580483 -0.029672848 0.06237491 -0.1376867 0.10597061 0.040603343 0.07121037 -0.15346316 -0.037479464 0.20471941 -0.046068106 0.0857308 -0.09017937 0.04238569 -0.0020858233 0.0038337114 -0.040040243 0.07888428 0.06393776 -0.24382132 -0.06345415 -0.07332736 -0.04021876 0.16853736 -0.039498247 0.14718416 0.07568066 0.09921198 0.07977484 0.11903058 -0.16303934 -0.045661684 0.20555972 -0.029775595 -0.17235032 0.0648329 -0.004424681 0.02777413 0.078635454 0.06880235 0.05418936 0.18333551 -0.15597975 -0.14565544 0.13518523 -0.06923866 -0.06423498 -0.23035008 -0.021313844 0.17991011 -0.12441822 0.18156613 -0.018432267 0.111619875 0.21819004 -0.13156551 0.022698062 -0.04148514 0.16035827 0.019045739 0.012683016 -0.03988609 -0.0064172377 0.11611686 0.05930543 -0.08100601 -0.0013203897 0.021357074 0.08738125 -0.08469223 -0.029408986 -0.038761664 0.088375196 0.02727416 0.20081215 0.12851667 -0.036713738 0.08442863
33 -0.10871129 -0.18543807 0.028542923 0.0059390124 -0.062270787 0.0009895177 0.21026115 -0.0059765694 -0.21810573 0.079774864 0.06717596 -0.12648831 -0.004367794 -0.33401194 0.13449296 0.08822095 -0.11061898 -0.013932491 -0.14429913 -0.0365978 0.24256259 -0.16609608 0.12779562 0.08284771 0.043196987 -0.11448715 0.012680203 0.08325654 -0.14396143 0.16434593 0.010709431 0.022161245 -0.22739431 0.084757544 0.0640898 -0.112909205 -0.11212654 0.020161998 0.09010595 -0.08473077 -0.035173953 -0.0069349958 -0.01819241 -0.10705408 -0.04481033 0.16538912 -0.27893874 0.12566532 0.08316929 -0.04398624 0.046219964 0.021030804 0.074798144 0.020088473 0.16746178 0.013487272 -0.0072386432 -0.11026846 2.7883507e-06 0.11942562 -0.056772087 0.10380254 0.0275355 0.04796842 0.012405144 -0.052415907 0.0044622864 0.14064471 0.048779946 -0.23360331 -0.08934306 -0.19177487 0.047245707 0.19229348 0.064476274 0.1388405 0.036692135 0.02685398 0.06486315 0.13698061 -0.13035606 0.088563174 0.052111372 0.08139186 -0.16172272 0.041288745 -0.020213012 0.09533875 0.14376877 -0.026003107 0.15554345 0.21258515 -0.13488173 -0.21659717 0.18186842 -0.056834906 -0.04403127 -0.17373067 0.037642058 0.1717801 -0.04042175 0.19524385 -0.050225977 0.16032894 0.21616416 -0.15804908 0.009830615 -0.045538645 0.15800503 0.054577924 0.055650733 -0.07667452 -0.024341105 0.1375243 0.13857141 -0.08111526 -0.031705346 0.041751463 0.10365408 -0.072051525 0.00531331 -0.013886206 0.031309508 0.04225569 0.20064706 0.05087942 -0.0034158377 0.13637936
3 -0.08822374 -0.13145809 0.010357617 0.051280506 -0.08768018 -0.06115728 0.17354204 0.009677894 -0.16618247 0.11904972 -0.00018901033 -0.07198808 0.017423373 -0.26702902 0.09873776 0.08367053 -0.15902421 0.007014842 -0.13394724 -0.038517743 0.20105134 -0.16644256 0.12281393 0.11290555 0.013642477 -0.090997316 -0.05365718 0.08092584 -0.14637576 0.113722146 -0.027124858 -0.016725067 -0.1936027 0.08680071 0.018514892 -0.0672526 -0.052679773 0.008934992 0.12818377 -0.050297648 -0.045419965 -0.024848985 -0.011301576 -0.12698661 0.036093216 0.15157545 -0.22195713 0.15733922 0.06649037 -0.041920602 0.019929476 -0.010330121 0.063478194 -0.07226968 0.12281187 0.034482006 0.033395793 -0.1322024 -0.021382231 0.16467056 -0.04589976 0.09065742 -0.048390612 0.04193752 0.0020253123 -0.016409751 -0.020991933 0.09707674 0.05421021 -0.22378637 -0.07514471 -0.1123484 -0.0055793864 0.16087598 -0.010113719 0.13209282 0.052828424 0.0686433 0.073697634 0.11068408 -0.13999304 -0.0002947762 0.14173962 0.0077386033 -0.1511004 0.05153861 -0.0033240814 0.05093369 0.09361417 0.028718645 0.085738964 0.1784156 -0.13486353 -0.1602967 0.13597998 -0.055623952 -0.046748657 -0.1902397 0.0049845926 0.1619155 -0.084630825 0.17234233 -0.02647598 0.113007024 0.19349435 -0.12755166 0.021531347 -0.039039638 0.14352894 0.030453706 0.028926224 -0.04957925 -0.007910246 0.110566966 0.08252151 -0.06873528 -0.011464829 0.030177549 0.089493975 -0.070842646 -0.016065381 -0.03280153 0.0645192 0.034026064 0.18908054 0.08733558 -0.025804903 0.09871454
2 -0.08972339 -0.13571005 0.011156961 0.05471281 -0.09619934 -0.06122581 0.17567292 0.010134864 -0.17478003 0.11889951 -0.0023137128 -0.07359495 0.021334501 -0.2736681 0.09532692 0.08210102 -0.15807495 0.008795878 -0.13005655 -0.03620801 0.1916694 -0.16082315 0.12026089 0.107172735 0.018613918 -0.09411727 -0.054318145 0.079327956 -0.152669 0.11477701 -0.032727405 -0.0144427335 -0.20390207 0.08355153 0.023746943 -0.06990711 -0.049787857 0.010548977 0.13793506 -0.05708762 -0.04580363 -0.02562146 -0.008497046 -0.13178714 0.036512464 0.16441433 -0.23109642 0.16550493 0.06570897 -0.05131119 0.026305903 -0.0132816695 0.060933296 -0.07850874 0.12665445 0.02976203 0.03613615 -0.13449937 -0.019747913 0.16731656 -0.044989444 0.09881417 -0.05180813 0.04642992 0.005253523 -0.012400469 -0.017115507 0.103991136 0.060428157 -0.2367856 -0.08367173 -0.11798041 -0.0013666117 0.1695395 -0.014494321 0.14153986 0.060995173 0.06507739 0.076305024 0.12574825 -0.15364672 0.0017287913 0.15459698 0.0106618535 -0.16032068 0.05685369 -0.010194007 0.05404104 0.10552003 0.0373076 0.083769836 0.19003598 -0.14717695 -0.17693475 0.15384018 -0.061398923 -0.045410663 -0.19875376 0.0029684303 0.17620626 -0.09229529 0.17856842 -0.022272138 0.12127672 0.21171696 -0.14261608 0.021548718 -0.036844578 0.15712401 0.03670726 0.03469414 -0.051867183 -0.016050648 0.126725 0.08912928 -0.07219095 -0.006518766 0.02821743 0.09938436 -0.074688934 -0.016392687 -0.035391368 0.0771165 0.034309253 0.20393635 0.10259205 -0.018938959 0.106643096
4 -0.08866601 -0.14547248 0.013388404 0.04654328 -0.09502192 -0.0693449 0.19146775 0.018773954 -0.18038478 0.12051088 0.006318185 -0.0824588 0.01909517 -0.28261694 0.09807015 0.08881763 -0.16592786 0.009532769 -0.14567 -0.039703455 0.20753756 -0.17214695 0.12654972 0.11433474 0.018976305 -0.093300246 -0.050828848 0.08160491 -0.15764716 0.12402024 -0.033176985 -0.012196482 -0.21099873 0.08465252 0.024681821 -0.067854755 -0.054853573 0.012285557 0.1393494 -0.057133753 -0.04995467 -0.0264079 -0.004075647 -0.13064252 0.031198379 0.16632858 -0.2400399 0.16200036 0.072973676 -0.050768346 0.024058063 -0.018151112 0.068505555 -0.07978648 0.1318956 0.025363132 0.03371829 -0.13297886 -0.024111455 0.16745193 -0.050046816 0.10302046 -0.051720988 0.05104655 0.0016526035 -0.0102021815 -0.024201127 0.10402595 0.062139157 -0.23731212 -0.07868339 -0.12211928 0.0051403916 0.17501691 -0.01028344 0.14112954 0.057742264 0.06541666 0.06699658 0.12769991 -0.1546606 -0.00029380567 0.14941093 0.016698593 -0.16661263 0.05119106 -0.009220109 0.062213913 0.10416917 0.036410943 0.09005759 0.1933716 -0.14610066 -0.17811096 0.1513151 -0.057770208 -0.047946144 -0.20355023 0.0034053987 0.1762733 -0.09126328 0.18410765 -0.023817942 0.1290045 0.2123316 -0.14079127 0.027401127 -0.043571137 0.15407489 0.038227733 0.032254025 -0.059181087 -0.017211296 0.12915033 0.09611381 -0.06812656 -0.009037043 0.028413618 0.10155777 -0.069453 -0.022545733 -0.036339257 0.07719036 0.027684549 0.2029964 0.100880615 -0.021436844 0.10679467
32 -0.09217173 -0.15917459 0.035530314 0.004720355 -0.05142445 -0.002325816 0.18989922 -0.0048407954 -0.19676444 0.06410405 0.062045567 -0.118789166 -0.0047883415 -0.29142207 0.111983925 0.07643599 -0.09249563 -0.0068585994 -0.122459434 -0.03495741 0.21842042 -0.14560859 0.118768044 0.07022357 0.037443843 -0.101571746 0.022997944 0.07392176 -0.13264339 0.15186727 0.010946548 0.022301666 -0.20858301 0.07271157 0.062810965 -0.105100945 -0.10768573 0.025109252 0.08467677 -0.08220376 -0.03416509 0.0010987406 -0.026046962 -0.101722434 -0.036785133 0.15556233 -0.26625705 0.10792985 0.07339625 -0.043984987 0.04791723 0.01695549 0.06861273 0.023274627 0.1561462 0.014482509 -0.008165653 -0.10172494 -0.0014951911 0.11119108 -0.044437196 0.096829705 0.026509698 0.04802294 0.008665722 -0.04844344 0.0065860194 0.13651565 0.044339463 -0.22111353 -0.09212155 -0.18670788 0.054227464 0.18243456 0.05885324 0.13638796 0.037034243 0.021069242 0.054919124 0.14058012 -0.13128527 0.08425536 0.055296328 0.08831184 -0.16523947 0.03944265 -0.024158845 0.08897375 0.14092071 -0.019125422 0.15231295 0.21157964 -0.12993689 -0.2180386 0.18264762 -0.057828598 -0.04089181 -0.1615751 0.040622175 0.17698057 -0.04295673 0.1866979 -0.052388314 0.15194541 0.21000856 -0.1556372 0.015260444 -0.047109626 0.15938611 0.05019126 0.060302466 -0.06608939 -0.017471565 0.1305757 0.13747458 -0.0733086 -0.02619683 0.04394419 0.10168306 -0.065550655 0.002545624 -0.0036171896 0.032842435 0.037907094 0.19946347 0.052145742 -0.0035742058 0.13859802
14 -0.084331535 -0.13606943 0.012998544 0.041429788 -0.081739455 -0.045566004 0.17264107 0.0038240221 -0.16916624 0.09765198 0.01238665 -0.08229095 0.013208006 -0.26240918 0.09454322 0.078616224 -0.13846497 0.004706336 -0.12323211 -0.030274572 0.19462106 -0.15073341 0.112436384 0.10161215 0.01763118 -0.09170119 -0.03263692 0.07534993 -0.13882145 0.11396982 -0.025682786 -0.003825293 -0.19520974 0.077481635 0.028367117 -0.070403695 -0.0607977 0.013476531 0.11936432 -0.059809275 -0.046567287 -0.02298902 -0.011087051 -0.114623435 0.022124523 0.1512355 -0.23336326 0.14396891 0.07061711 -0.04406053 0.031165725 -0.0047813645 0.060429044 -0.051662225 0.12704448 0.025888136 0.02277469 -0.12236833 -0.019657202 0.1468409 -0.045661002 0.09260197 -0.02965931 0.04068568 0.006724145 -0.017759588 -0.00993149 0.1045699 0.050947163 -0.22041538 -0.0804586 -0.12259187 0.009312324 0.16132115 0.0079151075 0.13513999 0.050579093 0.052163344 0.068735085 0.114947334 -0.13901162 0.019357048 0.12331966 0.025775133 -0.15249151 0.052758016 -0.0110423155 0.063782245 0.10818587 0.01868255 0.09349704 0.18308315 -0.13504888 -0.17003983 0.14521863 -0.058392935 -0.041987333 -0.18485057 0.011821004 0.16236162 -0.07350338 0.17259794 -0.027577125 0.12381748 0.19709957 -0.13532811 0.016513474 -0.043253817 0.14423814 0.03413585 0.030649137 -0.056517277 -0.015788719 0.11383442 0.094936214 -0.07018848 -0.011585575 0.032142896 0.09564701 -0.07199295 -0.014371092 -0.022740565 0.05811225 0.035915717 0.1848228 0.08337202 -0.018876333 0.10603748
24 -0.10310374 -0.17643106 0.043417558 0.0022534223 -0.05295713 0.00956178 0.21096617 -0.0057201884 -0.2211942 0.0664713 0.076113805 -0.13748035 -0.014025237 -0.31444284 0.1298269 0.08404103 -0.088856086 -0.013732474 -0.1325408 -0.043551452 0.24034354 -0.15768677 0.1288957 0.07368311 0.040712625 -0.11721825 0.032645922 0.07589648 -0.13531561 0.17148168 0.017863706 0.02555194 -0.21905316 0.075960815 0.06894413 -0.118213385 -0.119036995 0.024287596 0.08092091 -0.09385326 -0.0303143 0.010760501 -0.022928497 -0.09540825 -0.060372483 0.15450218 -0.28008822 0.096306056 0.0806545 -0.04095092 0.056987632 0.033502284 0.0772375 0.041854855 0.17239708 0.0065889214 -0.017418971 -0.10188811 0.008859078 0.099411786 -0.048633553 0.104388244 0.038314525 0.047303263 0.0071765212 -0.055993203 0.0168719 0.14534315 0.0467396 -0.22317868 -0.09332405 -0.2044263 0.06749323 0.18718757 0.07332593 0.14308555 0.037028797 0.010453833 0.054382127 0.14869098 -0.124255344 0.10393943 0.035131462 0.10359849 -0.16584358 0.030899532 -0.029344233 0.10201019 0.14996518 -0.030985717 0.1592543 0.21600184 -0.12776166 -0.22589658 0.19285417 -0.06104507 -0.04026713 -0.1525041 0.043690797 0.1823411 -0.0379445 0.19146024 -0.05226415 0.16405323 0.21844713 -0.15689619 0.017008731 -0.048880525 0.16074757 0.050786454 0.07477206 -0.074927196 -0.021962743 0.13270359 0.14884049 -0.071790814 -0.028496653 0.043489262 0.10709775 -0.064759485 0.0048024696 0.0004501557 0.02713853 0.043918326 0.19826785 0.03710684 -0.0057225823 0.14695264
9 -0.095272854 -0.15523157 0.031691033 0.019602437 -0.063830025 -0.013741729 0.187433 -0.0015045612 -0.1975361 0.08497123 0.044034176 -0.108529575 0.0021943278 -0.2961565 0.118101485 0.086357564 -0.1118494 -0.005663584 -0.12884948 -0.035788942 0.22243243 -0.16131306 0.118506566 0.08749201 0.027602322 -0.101607755 0.0009810505 0.075271 -0.13823676 0.14491916 -0.0007759378 0.012157168 -0.20546947 0.07777236 0.050434098 -0.10151068 -0.09453528 0.0120305875 0.088238746 -0.07998723 -0.0327737 -0.008676304 -0.017955465 -0.10799596 -0.02632081 0.1531863 -0.25083482 0.118514314 0.073025115 -0.04503478 0.042103946 0.016475411 0.068824634 0.0036575967 0.15198167 0.019422626 -0.0014471684 -0.109371945 -0.0074807606 0.122081175 -0.04385762 0.093667224 0.0087013515 0.045603514 0.0049364595 -0.03931994 0.004086541 0.12294129 0.047402274 -0.20793262 -0.08461409 -0.16824202 0.039671235 0.17388259 0.042181283 0.13453051 0.03807571 0.033473674 0.064682424 0.12544763 -0.122199304 0.06661783 0.06599362 0.0692953 -0.15086651 0.040481422 -0.019942047 0.0814123 0.13013685 -0.008872694 0.12910429 0.19227135 -0.12157517 -0.19614708 0.16557139 -0.056669146 -0.0380225 -0.16477011 0.027820857 0.16646414 -0.053576373 0.17826529 -0.04295433 0.13834678 0.20028938 -0.14110282 0.011694105 -0.041672472 0.15090147 0.04418276 0.052691028 -0.060197696 -0.015247151 0.11860399 0.12293792 -0.070508234 -0.023578774 0.038789134 0.09168241 -0.06920735 -0.002824681 -0.007938751 0.036529325 0.03620015 0.1871142 0.058859877 -0.011182871 0.12540011
8 -0.0884601 -0.13189657 0.009060566 0.05128529 -0.088483386 -0.061064493 0.17534275 0.014724946 -0.16933514 0.11369654 -0.0054859705 -0.06726086 0.02095336 -0.26199043 0.09218791 0.082689844 -0.15307403 0.005027086 -0.13126306 -0.034883678 0.18542269 -0.15911348 0.11496857 0.10582295 0.018500313 -0.089282915 -0.048929762 0.07536102 -0.14792626 0.10553673 -0.03694789 -0.012040792 -0.19391155 0.08563173 0.016874628 -0.056676585 -0.046202462 0.012384765 0.13007331 -0.048445955 -0.044213325 -0.028925486 -0.008924543 -0.11923098 0.033113822 0.15110509 -0.22618413 0.15500435 0.06277689 -0.046756208 0.024646875 -0.017050274 0.059824657 -0.076962925 0.12326177 0.027658386 0.039128866 -0.12337556 -0.019573105 0.16115174 -0.047191083 0.093152486 -0.050528787 0.0483653 -0.0013769326 -0.011666542 -0.022888293 0.09720848 0.05823746 -0.22160268 -0.07487016 -0.10944734 -0.003198557 0.16739981 -0.0072712777 0.1329497 0.05549641 0.062238883 0.068496585 0.11667764 -0.1472316 -0.0014141256 0.14812037 0.00836974 -0.15973103 0.052581776 -0.009192442 0.05655986 0.09514788 0.035988975 0.08380587 0.18532105 -0.14269505 -0.16564636 0.14111172 -0.056557987 -0.051490407 -0.19470148 -0.0001738105 0.17037009 -0.091919065 0.17620292 -0.02580443 0.11955088 0.20516881 -0.12882695 0.024921285 -0.042807035 0.14882454 0.03120481 0.031144964 -0.054021336 -0.012980741 0.12195467 0.08331854 -0.07059634 -0.007999018 0.026663816 0.091654025 -0.06750789 -0.018177865 -0.034450825 0.0755499 0.03198389 0.19324237 0.099192575 -0.02241381 0.10052454
6 -0.09298149 -0.09067623 -0.0030431189 0.11040899 -0.1298686 -0.14602353 0.16255939 0.035878707 -0.1276539 0.15928735 -0.07666485 -0.028072447 0.031959016 -0.25089306 0.08193575 0.09702581 -0.21818745 0.05566226 -0.12025954 -0.024593266 0.16701755 -0.17876332 0.13053125 0.15416765 -0.0028734782 -0.06303014 -0.12504418 0.08927629 -0.14878897 0.0633413 -0.082525335 -0.053744655 -0.17504239 0.09665971 -0.011794175 -0.024664562 0.0011887387 -0.013947673 0.17078763 -0.0138030015 -0.073813714 -0.047005236 -0.0076887505 -0.15823169 0.12628315 0.16334875 -0.19244501 0.20703657 0.07012814 -0.04575879 0.009774726 -0.039990537 0.04297735 -0.16891558 0.08727993 0.053294346 0.09356462 -0.1671317 -0.037182104 0.21957423 -0.044065446 0.06556207 -0.12197851 0.031980764 0.006033012 0.021154925 -0.04320559 0.06480278 0.05832011 -0.22791657 -0.056431636 -0.02927042 -0.07070434 0.14225075 -0.075441636 0.14222004 0.08307452 0.11376334 0.073349126 0.114516 -0.16765802 -0.08342848 0.24180916 -0.06595059 -0.16982624 0.07854201 0.005860771 -0.008026216 0.06523357 0.08965002 0.024565963 0.16914031 -0.15499303 -0.11432289 0.12546414 -0.07447689 -0.06431341 -0.22820948 -0.041712213 0.17682043 -0.14965451 0.16711846 -0.0007023927 0.0823947 0.20969903 -0.11939281 0.018993549 -0.04062304 0.1539742 0.0109391445 0.0043671075 -0.021865325 0.0014809759 0.093456015 0.032629892 -0.07864185 0.02104734 0.0020294397 0.073676445 -0.0897115 -0.041416332 -0.033587907 0.09705846 0.027321104 0.18978569 0.15027896 -0.04250958 0.072430156
28 -0.09645376 -0.17327029 0.036907893 0.012217422 -0.057984687 -0.010350351 0.20832239 -0.00084088644 -0.21162893 0.07529685 0.067756124 -0.12557103 -0.009066799 -0.313431 0.12643173 0.08722842 -0.10118796 -0.0057097487 -0.13373913 -0.042933952 0.23822528 -0.16050719 0.13145721 0.08146939 0.033346742 -0.11388298 0.01905703 0.077210955 -0.1357907 0.1651785 0.009600216 0.017854385 -0.21543336 0.07769446 0.06340831 -0.10880804 -0.109240204 0.023634374 0.08523405 -0.0830673 -0.028312108 0.006321238 -0.01968781 -0.101709075 -0.043615952 0.15801233 -0.27264822 0.10829431 0.07989788 -0.044175535 0.049185716 0.025480812 0.073507264 0.023038497 0.16206746 0.009854035 -0.008508097 -0.1118352 0.0005906244 0.10766386 -0.04258918 0.10149349 0.022072462 0.049482413 0.008223822 -0.04789762 0.012908033 0.14346914 0.045681998 -0.22110833 -0.091678955 -0.19505419 0.053374935 0.18488756 0.05790114 0.13747686 0.03777426 0.023176447 0.058193572 0.14421341 -0.12937035 0.08426434 0.059106126 0.085159324 -0.16859685 0.032245994 -0.023810294 0.093573995 0.14088126 -0.022463625 0.1514751 0.20788698 -0.12533957 -0.21776693 0.18231805 -0.05560134 -0.04051558 -0.16475536 0.041030753 0.18207137 -0.045084108 0.1933814 -0.044722665 0.1609171 0.21284299 -0.1536655 0.017124828 -0.04556572 0.16288882 0.04570211 0.069596834 -0.07378281 -0.022588603 0.13690102 0.13726729 -0.07011419 -0.029269015 0.041499447 0.10088216 -0.07006805 -0.003571292 -0.003356129 0.033977237 0.04164274 0.20214294 0.050000336 -0.007434244 0.13592747
7 -0.09425928 -0.10271807 -0.005276117 0.09996439 -0.12014705 -0.1316876 0.16256794 0.031167615 -0.13598318 0.15097436 -0.06371281 -0.029546378 0.032901496 -0.2496309 0.082243785 0.0940604 -0.20479037 0.049728334 -0.11564891 -0.023073455 0.16477771 -0.17654295 0.13084438 0.149056 0.0022105777 -0.06872848 -0.11421562 0.08684841 -0.1472083 0.07228929 -0.07728886 -0.04530152 -0.17815712 0.09350414 -0.00948717 -0.023825867 -0.008654494 -0.013451978 0.16852054 -0.022671074 -0.06721248 -0.04652348 -0.0074702734 -0.15427133 0.10976839 0.161189 -0.20022719 0.1967906 0.07235613 -0.04672389 0.015356869 -0.03482727 0.051645834 -0.15775049 0.095391534 0.044982973 0.08409586 -0.1576771 -0.04093675 0.21159007 -0.043463293 0.074600615 -0.117054924 0.028888054 0.005621093 0.01334871 -0.045323014 0.07112327 0.06178813 -0.22943579 -0.05436486 -0.045186177 -0.05785821 0.14418866 -0.066473074 0.14275579 0.0820641 0.1110477 0.07382918 0.11614767 -0.16796412 -0.06625535 0.2327574 -0.051471118 -0.17578205 0.07175981 -0.0011620353 0.0028565836 0.07528751 0.08261247 0.034003843 0.17259242 -0.15082407 -0.123771556 0.13329032 -0.07378554 -0.06657221 -0.22999564 -0.03912663 0.18305239 -0.1432908 0.174029 -0.007100276 0.09326827 0.21550217 -0.11866258 0.015660154 -0.04197811 0.15445328 0.013554934 0.0060979323 -0.02319079 -0.0019503259 0.10021585 0.04289262 -0.08151065 0.014972603 0.004865417 0.081775285 -0.08681111 -0.03601284 -0.029478075 0.09414744 0.030271372 0.19672105 0.14161503 -0.041797865 0.07303504
30 -0.09783817 -0.16830958 0.04190793 0.0067343116 -0.05398996 -0.0059984736 0.19648972 -0.0028079804 -0.20194201 0.06559438 0.06378961 -0.122708365 -0.0028155108 -0.30091545 0.11345456 0.07533648 -0.089972794 -0.013627859 -0.123886906 -0.03757278 0.23078522 -0.15143491 0.120203145 0.080766596 0.036281317 -0.11048348 0.026070883 0.07213544 -0.13949354 0.16350874 0.0047715674 0.02162432 -0.21994293 0.07251761 0.064401165 -0.11511545 -0.10749441 0.023362366 0.089184135 -0.091840774 -0.036349818 0.001240876 -0.024821796 -0.10827524 -0.037743904 0.16093442 -0.27696165 0.10876639 0.08157535 -0.042653926 0.052550454 0.019993406 0.06744833 0.030361673 0.1751903 0.01581544 -0.007671679 -0.10635871 0.0028678132 0.10664016 -0.050231267 0.101141445 0.021678843 0.048887182 0.0038384062 -0.04615098 0.01291369 0.1406116 0.043629996 -0.22237906 -0.0897291 -0.19484545 0.056273673 0.17830417 0.05109081 0.14382972 0.04111704 0.02277458 0.055451352 0.1489233 -0.1306902 0.08857784 0.05815277 0.09273185 -0.17162432 0.037907086 -0.03115578 0.097003676 0.15107551 -0.025425205 0.15249641 0.2129556 -0.1318833 -0.22507343 0.18662082 -0.06207095 -0.0335717 -0.16209145 0.042194594 0.18050063 -0.043197885 0.193829 -0.05043201 0.16239214 0.22100334 -0.15736988 0.015702544 -0.048627708 0.16359165 0.049385905 0.06249294 -0.06740941 -0.018902628 0.13614815 0.14315103 -0.07453813 -0.022916613 0.035668194 0.107460625 -0.067363195 -0.002541146 -0.0052036154 0.034868103 0.038142018 0.2069848 0.047098845 -0.0017482224 0.13697428
20 -0.09362674 -0.14092012 0.017083606 0.04733485 -0.09390865 -0.060680833 0.18938215 0.011666559 -0.18334237 0.1153152 0.004036572 -0.08524786 0.010739418 -0.28862143 0.109631605 0.086917065 -0.15349218 0.011693908 -0.1384207 -0.035222694 0.21308483 -0.17285201 0.12968348 0.11228055 0.016684417 -0.099595085 -0.044511303 0.0851774 -0.1499728 0.123209886 -0.024761971 -0.011159668 -0.20967785 0.08753852 0.027812397 -0.07819731 -0.062762074 0.009906303 0.12804416 -0.06007854 -0.044927087 -0.025987549 -0.01070459 -0.13041072 0.019992663 0.16691592 -0.24858022 0.15948159 0.07553581 -0.050370775 0.028969202 -0.0023692604 0.06918729 -0.063502334 0.1368018 0.031880274 0.035585035 -0.13736819 -0.015421556 0.15883002 -0.049770396 0.09555711 -0.035998005 0.04787573 0.0013875565 -0.017160717 -0.016119953 0.109822564 0.057205405 -0.22872262 -0.0767515 -0.12515624 0.0049796696 0.17127971 0.0017906731 0.14014497 0.058619283 0.05762539 0.067001276 0.1279059 -0.14619078 0.010467373 0.13575134 0.026707849 -0.16909698 0.05629383 -0.015533723 0.05931453 0.10884984 0.030798238 0.09845923 0.19826925 -0.14393193 -0.18303688 0.15575832 -0.06322152 -0.0531135 -0.19674687 0.0073056277 0.18090121 -0.08818526 0.18869762 -0.032086477 0.12986095 0.21959157 -0.1432385 0.017228998 -0.045272328 0.16095798 0.037261087 0.038187698 -0.051489305 -0.011280659 0.12541078 0.097811 -0.07947997 -0.0073081106 0.02895044 0.09285939 -0.077070944 -0.01609768 -0.020738984 0.060127683 0.031182472 0.20186044 0.09446562 -0.021078106 0.11090129
25 -0.093599595 -0.16139507 0.044001397 0.003009491 -0.05086758 -0.005968933 0.20096001 -0.0022939367 -0.20659739 0.064983465 0.06672353 -0.12647758 -0.009870014 -0.2980952 0.123008795 0.08515989 -0.09422009 -0.0051817526 -0.12228146 -0.039035827 0.23200248 -0.1524063 0.12749761 0.07737637 0.034731 -0.10600784 0.0275467 0.07289372 -0.12546122 0.16363081 0.0105081 0.01779215 -0.20696872 0.07286899 0.06951154 -0.10685756 -0.10979397 0.023854576 0.07724713 -0.08730244 -0.026282886 0.010872664 -0.026763955 -0.097505406 -0.045738876 0.15522443 -0.2678103 0.09729587 0.07473651 -0.037739918 0.057098877 0.023090418 0.070547745 0.034811348 0.16216378 0.012277396 -0.009400426 -0.10922271 0.0063994527 0.09928138 -0.03997148 0.10255568 0.034547497 0.041076336 0.010803506 -0.048081916 0.016783962 0.14416477 0.044377662 -0.21628441 -0.09184566 -0.19748315 0.06005496 0.1866778 0.0590517 0.13664272 0.036123842 0.016336529 0.05208781 0.14930782 -0.13192484 0.084981896 0.050946236 0.09796296 -0.17030208 0.038097013 -0.033131193 0.09512954 0.14506465 -0.021450933 0.1556293 0.21259743 -0.12532958 -0.22683941 0.19144472 -0.05888736 -0.040754076 -0.15925664 0.043494407 0.18222973 -0.044023097 0.1938746 -0.05187374 0.16641301 0.2176803 -0.16175206 0.015092612 -0.047505073 0.16105038 0.04934458 0.075527586 -0.07449528 -0.019382397 0.13527597 0.14815046 -0.06859292 -0.021547351 0.03661951 0.10674897 -0.06710224 -0.00590449 0.0033580787 0.03362633 0.037688393 0.20313472 0.04808067 -0.0019307028 0.14042485
26 -0.1057699 -0.19689749 0.051299788 -0.0032811752 -0.055872068 0.016205262 0.23118968 -0.013130459 -0.23746973 0.05844143 0.09096219 -0.15398857 -0.017118655 -0.34926283 0.1394337 0.088219106 -0.0851904 -0.012802334 -0.13867478 -0.039304536 0.26904213 -0.17391278 0.14083344 0.07524286 0.044495475 -0.12751849 0.05055152 0.081615545 -0.14649965 0.1908064 0.019574625 0.03497538 -0.2423506 0.077254064 0.0883066 -0.13672505 -0.14064708 0.027624423 0.07925522 -0.10566102 -0.028593559 0.010820539 -0.032741543 -0.102148406 -0.07134527 0.17426088 -0.3131789 0.099793375 0.09026962 -0.04741944 0.066451125 0.04076775 0.0837499 0.06647823 0.19666407 0.0042580036 -0.028630076 -0.109135464 0.0056664664 0.09988398 -0.04755422 0.106527664 0.059852883 0.049854554 0.013133208 -0.060649395 0.025676941 0.17024828 0.04357984 -0.23189233 -0.103910565 -0.23291208 0.081052996 0.20286068 0.086625196 0.15384385 0.032878526 0.003721525 0.057939254 0.16282928 -0.13664202 0.12303583 0.022487186 0.12687798 -0.17975026 0.03248589 -0.039536465 0.11682434 0.17635106 -0.04701172 0.18451609 0.23572885 -0.12980728 -0.25637785 0.21377012 -0.06522656 -0.039060693 -0.16031264 0.052454133 0.19973834 -0.032382574 0.21274185 -0.06028692 0.17924973 0.23774977 -0.17515397 0.011467714 -0.05284505 0.1786115 0.057935107 0.082130775 -0.07875819 -0.024179813 0.14730252 0.17163943 -0.07946415 -0.03582747 0.045884974 0.11354666 -0.07826561 0.005937442 0.009005554 0.02070833 0.04166614 0.21631609 0.04172947 0.002583016 0.16557667
29 -0.090155825 -0.16009705 0.031900253 0.0012978485 -0.052449264 0.003453264 0.18847571 -0.0076256543 -0.19730964 0.06388561 0.06426849 -0.1194212 -0.0064406972 -0.28843045 0.12044629 0.07946943 -0.0913782 -0.013175788 -0.12274118 -0.035782613 0.21914129 -0.15237862 0.12094336 0.07536288 0.038709536 -0.102655485 0.019558227 0.07198225 -0.13217193 0.15685302 0.010641991 0.020702027 -0.20367225 0.07214425 0.062627204 -0.10441371 -0.10480836 0.021061119 0.077460565 -0.08671569 -0.03378236 0.0027870801 -0.020290492 -0.10099668 -0.043171357 0.15245746 -0.2611387 0.10838711 0.077736706 -0.04477847 0.044545546 0.023596045 0.07034705 0.026858937 0.16271266 0.015329925 -0.011295587 -0.106599696 -0.0011761808 0.104436316 -0.04804648 0.096662685 0.024226146 0.047239937 0.012430955 -0.051296275 0.008995757 0.13506536 0.04046175 -0.21738213 -0.09178557 -0.18885043 0.05010551 0.17756276 0.060855605 0.13519797 0.03962384 0.020213539 0.060186584 0.1320207 -0.1210759 0.08558893 0.048175294 0.08308884 -0.1555433 0.033693865 -0.02233157 0.091804504 0.14381072 -0.022181839 0.14387393 0.19886413 -0.124342084 -0.21321295 0.17264599 -0.052080628 -0.03814255 -0.15231986 0.041855667 0.16735561 -0.03651104 0.1811779 -0.04314502 0.15185195 0.20298061 -0.14760393 0.014806424 -0.046184562 0.1500996 0.051383253 0.06332062 -0.071130015 -0.018074838 0.123296835 0.13814844 -0.07492065 -0.02935373 0.03782926 0.10102888 -0.069408655 0.00070044707 -0.0034736278 0.030845521 0.04143725 0.1902421 0.048253674 -0.0024588709 0.1307844
31 -0.10087964 -0.15206257 0.016137239 0.04027169 -0.085814014 -0.05035077 0.195643 0.004893186 -0.19311847 0.11406908 0.01583919 -0.09050452 0.007848957 -0.29822436 0.115253605 0.091351315 -0.15062834 0.0072390824 -0.14095591 -0.038482 0.22136073 -0.17654434 0.12936263 0.11023078 0.025493052 -0.10224228 -0.0386667 0.08565895 -0.15403703 0.12744313 -0.023335585 -0.00289872 -0.21024443 0.08616391 0.03726807 -0.07950822 -0.076256596 0.010539269 0.1223809 -0.06380348 -0.042933904 -0.02070214 -0.011701167 -0.1208052 0.016218368 0.16159186 -0.25190666 0.15098894 0.07783604 -0.045618992 0.03576962 -0.00047661894 0.067227826 -0.048363436 0.13587996 0.026680538 0.025908729 -0.12525064 -0.016010288 0.15384643 -0.04875502 0.09230793 -0.029711824 0.048569668 0.0043012663 -0.025107399 -0.016525824 0.113642424 0.05117358 -0.23065588 -0.08408143 -0.13451052 0.009716127 0.17152618 0.012612188 0.13767056 0.05423461 0.055575818 0.06910124 0.12513342 -0.1395557 0.024058655 0.121808186 0.03591327 -0.16428103 0.0527224 -0.013450224 0.06528197 0.11484034 0.016287228 0.11017863 0.19899154 -0.142986 -0.18351255 0.15701452 -0.059350256 -0.05120661 -0.19094314 0.011193857 0.17459828 -0.07833841 0.18696728 -0.035872776 0.13293432 0.20998135 -0.14185508 0.015399735 -0.042033955 0.15578328 0.03926564 0.037759963 -0.056249134 -0.011964316 0.12102547 0.10565431 -0.08135849 -0.01610686 0.03382982 0.09721135 -0.0724794 -0.012026424 -0.017054308 0.06067093 0.03178255 0.19437465 0.0830117 -0.018130505 0.11224782
11 -0.09295321 -0.11926334 0.003715317 0.0802581 -0.11170113 -0.11021454 0.17540146 0.026526686 -0.1596198 0.14111935 -0.039806698 -0.053614054 0.022263506 -0.26374745 0.093164735 0.09697317 -0.19257128 0.036594726 -0.121211655 -0.026346272 0.18889406 -0.17632873 0.13403478 0.13855982 0.005206662 -0.08072485 -0.08727053 0.08943812 -0.14665535 0.09726539 -0.06049809 -0.03663865 -0.18627581 0.09041127 0.0056101796 -0.045291398 -0.029912544 -0.0050361645 0.15279494 -0.03908438 -0.06489544 -0.039878253 -0.007627024 -0.14704023 0.07598721 0.16833192 -0.21539946 0.18002759 0.07546416 -0.045757968 0.023262883 -0.021322772 0.0534177 -0.12565367 0.11067444 0.03578831 0.068587214 -0.15222222 -0.034196496 0.19394016 -0.04727591 0.08010437 -0.090073116 0.034017693 0.0020017053 -0.003566484 -0.029152948 0.08768764 0.057695687 -0.228724 -0.06482839 -0.07477909 -0.039955806 0.1602922 -0.040274728 0.13972823 0.07298118 0.09269452 0.07138276 0.11862525 -0.1650531 -0.037366487 0.19941118 -0.021818817 -0.17510185 0.0634108 -0.00658841 0.024528956 0.083722636 0.06605438 0.059905678 0.18322718 -0.15221162 -0.15094702 0.14607258 -0.06612464 -0.060532637 -0.22287612 -0.02323837 0.18608823 -0.12615654 0.18131195 -0.019456014 0.10483137 0.21644534 -0.13586247 0.014898757 -0.041121494 0.16003641 0.018721713 0.024185048 -0.03644721 -0.0054586004 0.10939941 0.069368266 -0.0786001 0.0026641309 0.013134199 0.08731456 -0.08620598 -0.03094056 -0.023953028 0.078874394 0.033445943 0.20321885 0.12317424 -0.032851856 0.09258132
5 -0.092206605 -0.1078872 -0.0010162522 0.0937635 -0.11275801 -0.11770457 0.17626289 0.027497267 -0.14398214 0.14954469 -0.05606465 -0.04333074 0.030282626 -0.26082453 0.087252155 0.09768517 -0.1962262 0.04657615 -0.12077137 -0.021518415 0.18310697 -0.17716365 0.13460939 0.14721929 0.00071941974 -0.076278254 -0.105565086 0.08664023 -0.15406884 0.08807416 -0.06412248 -0.03972998 -0.18955879 0.097970225 -0.0021075243 -0.035435695 -0.018801186 -0.008315243 0.16026531 -0.02687978 -0.068282865 -0.043739267 -0.008510241 -0.15045904 0.09829708 0.16572173 -0.21580319 0.1934242 0.07608052 -0.041766185 0.01640952 -0.023226509 0.051582277 -0.14184715 0.10335255 0.046818905 0.074106485 -0.16079257 -0.029940201 0.2061765 -0.047699515 0.07315395 -0.102193 0.03091437 0.0014126226 0.0047707893 -0.038891014 0.08036051 0.061538417 -0.2322307 -0.061724808 -0.053515624 -0.050678875 0.14818923 -0.052398782 0.14127365 0.0812454 0.10278537 0.071173206 0.117462374 -0.16527759 -0.048410077 0.21410249 -0.037185356 -0.17804183 0.07119224 -0.0025758827 0.0081937555 0.07874982 0.071365036 0.048201926 0.17424011 -0.15141417 -0.13661751 0.14037782 -0.07354826 -0.062963076 -0.22096965 -0.034989357 0.18348789 -0.13039896 0.1722477 -0.011546566 0.09482791 0.21943241 -0.12279191 0.019422837 -0.045755755 0.15190776 0.015210258 0.013500771 -0.02880319 -0.0009089246 0.10467098 0.055635843 -0.08591925 0.011831658 0.010011846 0.079414956 -0.087950885 -0.034554135 -0.023623321 0.083968304 0.030562345 0.19372673 0.13277079 -0.03784137 0.08462122
18 -0.09613457 -0.13860415 0.009423794 0.05841068 -0.09538794 -0.07933875 0.19105409 0.016100606 -0.17645489 0.1315311 -0.013995073 -0.07341814 0.015213674 -0.28600708 0.1041207 0.08941692 -0.17246969 0.016302405 -0.13927399 -0.033344917 0.20413046 -0.17239624 0.13143553 0.12403873 0.017515471 -0.092709824 -0.061159473 0.08646377 -0.15405037 0.110583484 -0.03669243 -0.020007562 -0.20477927 0.09301942 0.01795695 -0.060547803 -0.050273176 0.0076749087 0.14022663 -0.049451284 -0.05650033 -0.027633015 -0.011487105 -0.13336319 0.043749463 0.16719273 -0.23915152 0.17164995 0.07374196 -0.050759956 0.027454514 -0.016708069 0.060719162 -0.08525414 0.12876488 0.03409052 0.04824009 -0.13788384 -0.02367865 0.17510436 -0.051936757 0.08779845 -0.05569868 0.04181345 0.0008245386 -0.008884695 -0.025964512 0.09672617 0.055104155 -0.23390926 -0.07641445 -0.10354694 -0.010727609 0.16658719 -0.017255694 0.13892414 0.06347791 0.07635777 0.068489544 0.12568362 -0.15371099 -0.007583449 0.15836078 0.008160461 -0.16884944 0.054426897 -0.007447537 0.050242268 0.1019351 0.038738895 0.07908501 0.19106579 -0.14654027 -0.16419663 0.14810956 -0.060287546 -0.052212827 -0.21072385 -0.0027055107 0.17916623 -0.103694595 0.18426567 -0.023507336 0.12440223 0.21575719 -0.13583438 0.016454248 -0.04215044 0.15734917 0.030834405 0.030156463 -0.05111025 -0.011850798 0.11813111 0.08277526 -0.07789534 -0.008977079 0.025631089 0.09114935 -0.078145556 -0.023555145 -0.023824602 0.07573388 0.030532701 0.19770819 0.103138305 -0.02946008 0.09699177
19 -0.09321118 -0.15095837 0.018910615 0.028059073 -0.07261228 -0.02286714 0.18849562 -0.00059874833 -0.18822025 0.091888465 0.03182294 -0.09597538 0.006850399 -0.2873191 0.11372543 0.08293288 -0.12059916 0.0020000522 -0.12965518 -0.038128383 0.21423429 -0.16105591 0.12117256 0.08788173 0.027653677 -0.09621168 -0.012525185 0.0789552 -0.13807712 0.13346612 -0.0055983746 0.006706164 -0.20753022 0.0786842 0.041654453 -0.09283862 -0.0869549 0.015649447 0.10743097 -0.06773063 -0.04314583 -0.010605745 -0.014027131 -0.11006543 -0.0077535263 0.15933777 -0.25360522 0.13196635 0.071885124 -0.047945756 0.0331381 0.0053847963 0.066483766 -0.023310218 0.14393269 0.017761596 0.014864222 -0.11526957 -0.0068818224 0.13791351 -0.04878823 0.10014067 -0.0074857096 0.049382027 0.008808659 -0.032093775 -0.006776663 0.11826904 0.05019415 -0.22758132 -0.08679655 -0.15393548 0.028265612 0.17836195 0.031263966 0.14046822 0.044591572 0.043098513 0.06573822 0.13135402 -0.13366802 0.04420895 0.09552265 0.055204917 -0.15850732 0.05092032 -0.014938661 0.07725119 0.124619335 0.0010552522 0.12152682 0.20138249 -0.1382125 -0.19666846 0.1693341 -0.055249844 -0.04550874 -0.18192199 0.023145018 0.1733286 -0.065971844 0.18309484 -0.036383048 0.13907453 0.2106516 -0.14556667 0.014802981 -0.047330976 0.15790279 0.03995045 0.045300372 -0.062395334 -0.018212272 0.12172389 0.11774092 -0.07930138 -0.01848006 0.03824448 0.097156666 -0.06792395 -0.007282998 -0.019809863 0.04940068 0.036081623 0.19229576 0.06963788 -0.014129144 0.11904507
22 -0.09518976 -0.14086516 0.013144741 0.06281958 -0.09728899 -0.08029471 0.18736744 0.017660718 -0.17412479 0.13194063 -0.013756991 -0.07513711 0.017064312 -0.28964296 0.105885826 0.09154482 -0.17620596 0.01924564 -0.13515434 -0.035782732 0.20162709 -0.17838684 0.12882096 0.12822227 0.013686125 -0.08767634 -0.06348682 0.08909989 -0.15510702 0.11338501 -0.04154983 -0.023214037 -0.1988306 0.08813187 0.022152465 -0.06405424 -0.052598663 0.0011583827 0.13822426 -0.0462591 -0.05235029 -0.030856006 -0.0077254702 -0.13224302 0.04660734 0.16536573 -0.23326361 0.16868086 0.07769452 -0.046707902 0.02943387 -0.013454625 0.06335566 -0.09137602 0.1269048 0.03507088 0.045472145 -0.13867141 -0.021768043 0.17204495 -0.048574418 0.091669165 -0.06110856 0.043452445 0.00086041074 -0.015516669 -0.023246497 0.10049455 0.055765733 -0.23256196 -0.069713935 -0.10250168 -0.016993614 0.16744648 -0.011987216 0.14145347 0.06714543 0.07290973 0.06948811 0.12131918 -0.15409555 -0.010180522 0.16155846 0.005576608 -0.16825779 0.05809425 -0.010246698 0.04504925 0.09828686 0.04176388 0.077255785 0.19118275 -0.14734837 -0.16218178 0.15172465 -0.06624908 -0.05263625 -0.20743468 -0.0025181295 0.18091886 -0.10080615 0.18253556 -0.02532837 0.11619079 0.21761535 -0.13664393 0.015255373 -0.042201042 0.1537811 0.02766074 0.025787197 -0.04631209 -0.0075296476 0.11829184 0.08610081 -0.08287726 -0.0033892002 0.026136158 0.0909392 -0.07638895 -0.018101389 -0.027565889 0.06640427 0.030871717 0.19904833 0.104668304 -0.023688862 0.10060398
13 -0.09234236 -0.14542727 0.018002043 0.058618385 -0.100342184 -0.075984485 0.19644815 0.017704913 -0.18078816 0.12817314 0.00045006705 -0.07965651 0.014898887 -0.28536922 0.10142205 0.094675265 -0.16853845 0.012005031 -0.14365679 -0.037510023 0.20275253 -0.1689425 0.12612988 0.11532545 0.016737996 -0.09156805 -0.056131665 0.08914617 -0.15235709 0.11699726 -0.032843888 -0.015939321 -0.20808893 0.09157467 0.02600651 -0.063897245 -0.0518697 0.0050006397 0.1399461 -0.054138884 -0.04905564 -0.02301835 -0.0040625413 -0.13169268 0.034531113 0.16631085 -0.24153288 0.16514754 0.07536841 -0.043756325 0.025640188 -0.011855685 0.06462255 -0.0796713 0.13385625 0.033367235 0.04319373 -0.14215876 -0.021897376 0.17481443 -0.049414612 0.0926069 -0.053527445 0.048535176 -0.0031043729 -0.011555947 -0.01753085 0.10336491 0.063452065 -0.2346222 -0.076978765 -0.11305429 -0.00010385226 0.16836102 -0.011108956 0.14498973 0.066129535 0.06474916 0.072278164 0.12787409 -0.15593041 -0.0037328224 0.15190765 0.009984221 -0.17162614 0.051178947 -0.013222979 0.058081925 0.10304879 0.03389118 0.0861291 0.18994932 -0.1479611 -0.17611553 0.14922085 -0.06510317 -0.053114884 -0.20774649 0.004211821 0.18221697 -0.0926801 0.18532214 -0.025510138 0.12230206 0.2135188 -0.13951424 0.025530726 -0.045121122 0.15795319 0.03559866 0.028270306 -0.052715335 -0.008345234 0.12864687 0.094491266 -0.07627429 -0.010585427 0.02270937 0.092228934 -0.07136779 -0.021181764 -0.030442016 0.07325852 0.032876365 0.20199084 0.10258222 -0.019688379 0.1012786
21 -0.09705663 -0.16754822 0.03245983 0.018994816 -0.07389267 -0.015138864 0.20060848 -0.0018520147 -0.20380315 0.08615472 0.049470574 -0.11085914 2.8311188e-06 -0.3129885 0.1184721 0.089939594 -0.11366338 -0.002055921 -0.13371336 -0.03754945 0.23255813 -0.16893357 0.1275655 0.08848424 0.03414109 -0.10778728 0.0038490093 0.0804803 -0.14140703 0.15268706 -0.0025298884 0.009968889 -0.22248875 0.0798598 0.0577828 -0.10436763 -0.09699993 0.018731833 0.100672126 -0.08026698 -0.037768606 -0.007539027 -0.024520915 -0.11530323 -0.023535635 0.16478094 -0.27249005 0.12575996 0.08139199 -0.04676221 0.04942441 0.017411746 0.07264297 0.0015718082 0.16458842 0.017443033 0.0044976613 -0.12337043 -0.0056706932 0.12916134 -0.051932935 0.09775419 0.009836847 0.049925886 0.0102908 -0.037190903 0.006448924 0.14014983 0.05144021 -0.2324664 -0.08921733 -0.18100573 0.038615655 0.1846634 0.04666796 0.14464377 0.044522054 0.03428465 0.06500357 0.13879812 -0.14341341 0.06568391 0.08594785 0.07070301 -0.17429274 0.04865885 -0.027002603 0.08585968 0.14386952 -0.0060925297 0.14303316 0.21306889 -0.13750944 -0.21408968 0.18467534 -0.059067607 -0.044066187 -0.17900823 0.026177472 0.18693617 -0.06122157 0.1988772 -0.04516609 0.15237108 0.22236842 -0.15708257 0.01691252 -0.050895188 0.16337562 0.04598102 0.05457383 -0.0692888 -0.019092107 0.13258187 0.13428582 -0.07994233 -0.01846033 0.033574924 0.107115 -0.075506136 -0.0054255486 -0.009245409 0.044233583 0.03796218 0.20518596 0.06719492 -0.013577948 0.1364565
17 -0.0971839 -0.09986587 -0.0058770436 0.10759705 -0.12392419 -0.13832793 0.16596521 0.03181409 -0.1395493 0.1572129 -0.07293348 -0.030465638 0.03405958 -0.25786564 0.08049922 0.09382539 -0.21719323 0.055967394 -0.1250607 -0.024849242 0.16999783 -0.17763864 0.13157026 0.15186642 -0.0022487906 -0.07225235 -0.11962495 0.09019473 -0.15432923 0.07501914 -0.07934191 -0.053553525 -0.17819989 0.09662935 -0.008972542 -0.022681218 -0.005311272 -0.01127146 0.1713683 -0.015507685 -0.0700034 -0.04855574 -0.0038619637 -0.15294921 0.11816849 0.16140136 -0.19799446 0.20498453 0.07614038 -0.045158625 0.014403044 -0.030359006 0.043354545 -0.16516837 0.09102762 0.04494078 0.090798594 -0.16216296 -0.036425743 0.21611218 -0.04196095 0.071365334 -0.1181763 0.03138453 0.005239902 0.011477245 -0.044101726 0.06865097 0.061473507 -0.22788894 -0.055345215 -0.03335107 -0.06004265 0.14377339 -0.065194 0.14266905 0.0802776 0.10988696 0.06811472 0.11756729 -0.16525573 -0.073860995 0.23763226 -0.0537436 -0.17808524 0.072578356 0.0046378933 0.00014339131 0.07211887 0.087029755 0.029769262 0.17059319 -0.15007755 -0.124236315 0.1330789 -0.0762792 -0.06910368 -0.23546784 -0.04330463 0.18462007 -0.1468134 0.16819243 -0.008000373 0.08665485 0.21297942 -0.11934406 0.016660137 -0.041338965 0.1532173 0.007813542 0.0059908438 -0.024148567 -0.00014939599 0.09930392 0.045670528 -0.08426143 0.01329514 0.006369704 0.07403976 -0.08623897 -0.039281778 -0.029654827 0.095349155 0.025030516 0.19489995 0.14445038 -0.04321426 0.07422566
15 -0.10234145 -0.16902864 0.029018143 0.0123158265 -0.06452273 -0.0056522624 0.20291504 -0.009137669 -0.20829755 0.08025637 0.050998937 -0.115993075 -0.0034256668 -0.311475 0.12622255 0.08683228 -0.10790704 -0.004044129 -0.134235 -0.0345266 0.23520242 -0.16594894 0.12727678 0.08909321 0.03833139 -0.11055539 0.0075537097 0.08093833 -0.14226969 0.15924877 0.0020647596 0.01848973 -0.21585247 0.08252801 0.056348644 -0.1064222 -0.107137 0.01537144 0.08940198 -0.08709515 -0.038631476 -0.003648074 -0.023039592 -0.11305917 -0.034015268 0.15978998 -0.26842558 0.11827185 0.07876617 -0.042275745 0.042775482 0.017110296 0.07112159 0.013389358 0.16156495 0.012875463 -0.0033698338 -0.11306461 0.00164054 0.123596825 -0.050779786 0.10332479 0.014395275 0.050602593 0.0072394726 -0.04894547 0.0028637873 0.13856256 0.04407168 -0.22730535 -0.09414619 -0.18437353 0.04081318 0.18401858 0.04937693 0.14158897 0.04123349 0.030065876 0.062030878 0.13668975 -0.13361567 0.07934073 0.06352026 0.07909366 -0.16777045 0.044685397 -0.021337688 0.09004352 0.14483783 -0.015040216 0.14800806 0.20900723 -0.13301572 -0.20935197 0.18215695 -0.056744743 -0.04637063 -0.16841425 0.03473737 0.18188883 -0.049109392 0.19023553 -0.04539086 0.1515447 0.21433812 -0.1528055 0.0133186905 -0.048888516 0.16349986 0.04905394 0.0592341 -0.0682511 -0.019932074 0.13083258 0.13256314 -0.076446615 -0.023954913 0.04317025 0.09985426 -0.07498137 0.0024870473 -0.002790478 0.03499721 0.041653585 0.2001289 0.052504983 -0.011535827 0.1323215
16 -0.09653122 -0.15401156 0.024659442 0.020954145 -0.07185754 -0.02434726 0.1872315 -0.0036068284 -0.19132328 0.08694829 0.04222526 -0.10593725 0.0014259845 -0.28786984 0.11564573 0.07840057 -0.11657423 -0.00015990835 -0.12694648 -0.033748545 0.21548983 -0.15653266 0.12250671 0.08652465 0.033132188 -0.100860916 -0.0037512337 0.079051055 -0.13655664 0.13835706 -0.0026651116 0.0042739892 -0.19893283 0.0753493 0.04829159 -0.09658439 -0.09031883 0.012985117 0.101406135 -0.07187991 -0.040268037 -0.009973047 -0.019935766 -0.1115357 -0.015035872 0.15389739 -0.24553625 0.12708606 0.06900406 -0.041181643 0.041921705 0.009218167 0.069343805 -0.013263543 0.1455597 0.021003583 0.0028942274 -0.114377595 -0.008531212 0.12817106 -0.046961293 0.09355102 -0.0027344115 0.04242818 0.0093165375 -0.035431143 -0.0037301609 0.12349472 0.048034403 -0.22017992 -0.084999904 -0.16078298 0.028119737 0.17454961 0.0348826 0.13517575 0.046341434 0.040919036 0.065712646 0.12695473 -0.13477162 0.05617438 0.08371503 0.05979408 -0.15981486 0.044045098 -0.022713274 0.080861695 0.12725873 -0.0012109755 0.12825692 0.19935215 -0.12875524 -0.19606267 0.16424644 -0.053368267 -0.04350104 -0.16856687 0.026145749 0.17419574 -0.0562686 0.18266524 -0.0410454 0.1447329 0.20941374 -0.14211406 0.014350015 -0.045138765 0.15309533 0.04308733 0.050090894 -0.060154006 -0.018890906 0.124305405 0.11803661 -0.075919904 -0.018861854 0.040373467 0.098680295 -0.07202165 -0.0047375807 -0.016820885 0.042578638 0.041077472 0.19221649 0.065267324 -0.009757405 0.12561056
10 -0.09993173 -0.16136196 0.02281134 0.03044414 -0.073806964 -0.026828857 0.19317576 -0.002051509 -0.19512232 0.09582626 0.03522263 -0.101414315 0.006925772 -0.29839233 0.113604225 0.08580156 -0.13104957 0.0007569749 -0.13748479 -0.03927076 0.22235456 -0.16900803 0.12500232 0.098912165 0.030688232 -0.10415741 -0.021084886 0.08556248 -0.1458204 0.1430543 -0.0080323825 0.0029671914 -0.20657171 0.08181962 0.04578363 -0.08964782 -0.08544063 0.010107555 0.111102626 -0.07369306 -0.04450442 -0.015025448 -0.016539127 -0.11586819 -0.008122131 0.15934835 -0.25215378 0.1373157 0.07398354 -0.049518734 0.033807784 0.0020483353 0.067941 -0.024245508 0.14999211 0.021256821 0.013412498 -0.12109291 -0.010846884 0.13580242 -0.04843748 0.09606838 -0.008887735 0.049366154 0.0041737654 -0.035214353 -0.006647001 0.12223199 0.049779937 -0.23018295 -0.08623717 -0.1554566 0.022341011 0.17549953 0.030494452 0.13589618 0.046882942 0.042815603 0.070053376 0.12934686 -0.13554482 0.047776982 0.098414674 0.050517395 -0.16237259 0.04465435 -0.018117601 0.07808904 0.12604015 0.0015898398 0.122791134 0.19981918 -0.13149948 -0.19096671 0.16462912 -0.055523425 -0.04626209 -0.18265663 0.019626906 0.17568319 -0.06447903 0.18565945 -0.034854688 0.14060865 0.20982972 -0.14093727 0.017874436 -0.044016503 0.15491438 0.03945764 0.043882646 -0.062415935 -0.018857682 0.12390503 0.11326896 -0.07695813 -0.02162926 0.03316563 0.094815195 -0.06773042 -0.0060711196 -0.01717848 0.046233274 0.03764523 0.19350375 0.068301566 -0.015560908 0.121743225
27 -0.09893169 -0.16048193 0.02905898 0.026696084 -0.07174936 -0.03129846 0.19567898 0.0021474725 -0.19561566 0.09517862 0.035372116 -0.10431531 0.0042707594 -0.29943305 0.11114805 0.0860628 -0.124399126 0.00023096534 -0.12929356 -0.03570224 0.21757919 -0.16311197 0.121845104 0.09677237 0.032645717 -0.09979848 -0.010751922 0.07977109 -0.14313734 0.1427264 -0.010329096 0.005461218 -0.21070424 0.08145265 0.04832759 -0.08612329 -0.08439983 0.01051335 0.10690983 -0.07014728 -0.038899317 -0.015208693 -0.012082629 -0.11589568 -0.00653448 0.1615603 -0.25635043 0.1325588 0.07833353 -0.04935904 0.037315715 0.011064585 0.066020325 -0.02384216 0.1501453 0.01790037 0.013923897 -0.122059315 -0.009973255 0.1373961 -0.049074057 0.094667956 -0.010439089 0.043482248 0.0026746702 -0.036671363 -0.0022029614 0.1217193 0.05179264 -0.22117601 -0.079473436 -0.15760778 0.023822552 0.17317478 0.030022329 0.13645983 0.04830314 0.042339876 0.066497006 0.13046868 -0.13469166 0.04773594 0.09703018 0.05693085 -0.16510971 0.042980347 -0.02345759 0.072862856 0.12757722 0.0042999964 0.117470495 0.196297 -0.13599582 -0.19526818 0.16958515 -0.056040876 -0.043833114 -0.17999488 0.020140266 0.17777067 -0.06715064 0.18636765 -0.039267246 0.14132558 0.21451017 -0.14742193 0.010483174 -0.045250725 0.1588103 0.04506832 0.04556603 -0.058546036 -0.019897083 0.12770817 0.11325397 -0.07495649 -0.021346444 0.036047872 0.09487344 -0.07147169 -0.0043830317 -0.011802193 0.04499061 0.039123382 0.19384553 0.0737917 -0.016019639 0.12154598
23 -0.099933736 -0.16402824 0.027915588 0.0132112205 -0.06885221 -0.012274578 0.19788507 -0.008017646 -0.20365678 0.082180634 0.04264845 -0.11435669 0.0028035182 -0.3065489 0.121536836 0.08340546 -0.11490847 -0.007183803 -0.1368492 -0.037943885 0.23033401 -0.16580525 0.12870713 0.08719144 0.036972553 -0.11066557 0.0016589374 0.07977408 -0.14555387 0.1540209 -0.0011539841 0.016365044 -0.22014435 0.08257927 0.055261742 -0.103331126 -0.10049145 0.015857095 0.09982981 -0.08495385 -0.040905423 -0.01109279 -0.018255467 -0.11141231 -0.024764244 0.16708843 -0.26593986 0.13169141 0.08162511 -0.04669583 0.04210569 0.010556922 0.06851212 -0.0028401932 0.1621287 0.015777579 8.9615554e-05 -0.1143004 -0.0072964584 0.13016254 -0.051853243 0.101874314 0.007364593 0.05213886 0.010600673 -0.043146558 0.0043786634 0.13427216 0.046463832 -0.2302568 -0.094025254 -0.1766207 0.038595174 0.18349859 0.04400776 0.1416404 0.047481902 0.03280045 0.069454245 0.1366792 -0.13894534 0.06538827 0.08391866 0.0702738 -0.16377603 0.044335205 -0.018590583 0.084975645 0.1400221 -0.010423216 0.13768987 0.2029873 -0.132731 -0.21032955 0.17686394 -0.059084896 -0.03916231 -0.17555586 0.02514216 0.17881389 -0.05467903 0.19303077 -0.04129626 0.14844324 0.21403703 -0.15481779 0.013467954 -0.044161055 0.16240785 0.04677281 0.05034437 -0.068725206 -0.016820969 0.13195583 0.13150828 -0.077431366 -0.024969256 0.040428545 0.10546874 -0.07369444 0.00025157718 -0.015839444 0.040812336 0.040440947 0.20240228 0.06116322 -0.00748192 0.13137726
12 -0.08871009 -0.13103785 0.013772753 0.0553618 -0.09857934 -0.07472378 0.1825955 0.017249167 -0.16995692 0.12392025 -0.0043387394 -0.07068294 0.013156555 -0.2784504 0.10112391 0.08654991 -0.16348656 0.014627654 -0.1323031 -0.037643097 0.20349051 -0.17259295 0.13209017 0.12222166 0.01904438 -0.092399426 -0.06231704 0.08221676 -0.15126003 0.11840452 -0.036721475 -0.015778873 -0.19907792 0.083750844 0.021022823 -0.06491501 -0.04850211 0.0022914428 0.13271354 -0.0544403 -0.051997017 -0.0314299 -0.007463357 -0.1359661 0.037740286 0.16563673 -0.23292984 0.16596593 0.070188545 -0.05061663 0.02769618 -0.011044882 0.06406149 -0.087143 0.12476911 0.033737753 0.041513562 -0.14213946 -0.020668188 0.16967441 -0.051286772 0.09371975 -0.058370613 0.04545424 -1.397507e-05 -0.012471385 -0.019119268 0.09912832 0.05794724 -0.23345762 -0.077440105 -0.11050447 -0.009360888 0.16397461 -0.013792533 0.14069627 0.059739195 0.07160861 0.071894735 0.12511425 -0.14957549 -0.0057935137 0.15681772 0.009204358 -0.16703853 0.056943342 -0.013300613 0.045370333 0.09990051 0.042051252 0.0833151 0.19172855 -0.13995083 -0.17145035 0.15094578 -0.06643881 -0.049511027 -0.202931 -0.002843519 0.18139768 -0.099519014 0.18377902 -0.024743788 0.11730645 0.2170449 -0.14003119 0.019988818 -0.039574508 0.15591355 0.03198517 0.028231772 -0.04729547 -0.008450266 0.12104122 0.08997209 -0.07422868 -0.0041671842 0.023585014 0.09291106 -0.078060426 -0.01709209 -0.024572818 0.07283061 0.035606377 0.1970185 0.103143394 -0.022181774 0.102361694
